{"fc1.weight": [[0.051842138171195984, -0.051284532994031906, 0.15876896679401398, -0.06726934015750885, -0.051330968737602234, 0.027318280190229416, -0.14383955299854279, 0.01923637092113495, -0.12188191711902618, 0.026108238846063614, 0.03526061773300171, 0.02619333006441593, -0.14377780258655548, -0.17350026965141296, 0.07950808852910995, 0.16996341943740845, -0.15686675906181335, 0.05490443855524063, -0.1301291286945343, -0.00034865434281527996, 0.16446556150913239, 0.1418861448764801, -0.12968339025974274, 0.12809918820858002, 0.08832664787769318, 0.0098812784999609, 0.19871118664741516, -0.07021131366491318, -0.047972630709409714, -0.08934544026851654, 0.02479609288275242, 0.04683830589056015], [0.01408560574054718, -0.10451273620128632, -0.0795789361000061, 0.06013102829456329, -0.15500247478485107, -0.027530238032341003, -0.010185262188315392, -0.0716235339641571, 0.05857130140066147, 0.011393919587135315, 0.12410865724086761, -0.021097548305988312, -0.11710510402917862, 0.11842335015535355, 0.020644212141633034, -0.050628527998924255, -0.12174270302057266, 0.03925734758377075, -0.16860121488571167, 0.041962701827287674, 0.08740629255771637, -0.15506860613822937, -0.1176234781742096, -0.12708932161331177, 0.14448072016239166, 0.15593431890010834, 0.014436759985983372, 0.16595898568630219, -0.06449798494577408, -0.1716187447309494, 0.056754469871520996, 0.06198158115148544], [0.17330874502658844, -0.01889367401599884, 0.13548098504543304, 0.10835771262645721, 0.12794546782970428, -0.15091438591480255, 0.1328609138727188, -0.16724734008312225, 0.14568479359149933, 0.012606828473508358, -0.13348375260829926, 0.03425769880414009, -0.042015064507722855, -0.16361479461193085, -0.08315905183553696, 0.044897787272930145, 0.13768191635608673, -0.06162549555301666, 0.10499967634677887, 0.009978565387427807, 0.005958765745162964, 0.042297083884477615, -0.14736494421958923, -0.14731548726558685, -0.08970912545919418, -0.13340191543102264, -0.05707043409347534, 0.008132755756378174, -0.12847310304641724, -0.07332626730203629, -0.05229031294584274, -0.013795915059745312], [-0.09758331626653671, 0.01526561751961708, -0.02481245994567871, 0.05055736005306244, 0.007984548807144165, -0.09113234281539917, -0.05818835273385048, 0.00720043433830142, -0.10262291133403778, 0.016644882038235664, -0.0158830638974905, 0.07478968054056168, 0.045812178403139114, 0.14650286734104156, 0.005210161674767733, -0.133003830909729, 0.0646546483039856, -0.1135808676481247, -0.024298369884490967, -0.049449458718299866, -0.06707693636417389, -0.06871958076953888, 0.17659561336040497, 0.12455331534147263, 0.05839467793703079, 0.16609090566635132, -0.15534554421901703, 0.028526023030281067, 0.11606170237064362, 0.11743097007274628, -0.12655675411224365, 0.07073355466127396], [-0.10070719569921494, -0.013645811006426811, -0.03688803315162659, -0.14760226011276245, -0.16862984001636505, -0.1163010224699974, 0.0743868499994278, 0.08086393773555756, -0.15175920724868774, -0.0663871243596077, 0.002887547016143799, -0.16189992427825928, 0.08992674946784973, 0.15439362823963165, 0.026573052629828453, -0.13134770095348358, 0.04122191667556763, 0.06417234241962433, 0.13997940719127655, -0.08844459056854248, -0.15837596356868744, 0.07766695320606232, 0.006989586167037487, -0.05759851634502411, -0.08422821015119553, -0.09114886075258255, 0.14310018718242645, -0.03050088882446289, 0.12192737311124802, 0.1577996462583542, 0.015093487687408924, 0.039213474839925766], [-0.012039333581924438, 0.07122542709112167, -0.1592913269996643, 0.07030108571052551, -0.028802022337913513, 0.07015581429004669, -0.025053568184375763, -0.05997795984148979, -0.007248023059219122, 0.09406228363513947, -0.13523784279823303, -0.1271781027317047, -0.04354611039161682, -0.07671435922384262, 0.0615183562040329, 0.10622560232877731, -0.03233228251338005, 0.17625169456005096, -0.07386083155870438, -0.09782953560352325, -0.07914187759160995, -0.12795737385749817, -0.14116807281970978, -0.16309048235416412, -0.19338402152061462, 0.04077257215976715, 0.07614793628454208, 0.16596631705760956, 0.13860350847244263, -0.010181218385696411, 0.022611098363995552, -0.10149269551038742], [0.06832791864871979, -0.15260463953018188, 0.08338077366352081, 0.032423585653305054, 0.05432422459125519, 0.07578609883785248, -0.08615709841251373, 0.15735429525375366, 0.07547705620527267, 0.1211659237742424, 0.03538897633552551, 0.10550174862146378, 0.10370045155286789, 0.05509651452302933, 0.12753048539161682, -0.017372678965330124, 0.1222713515162468, 0.012570411898195744, 0.10636584460735321, 0.14942717552185059, 0.04002879559993744, -0.057961344718933105, -0.011313500814139843, 0.06728395819664001, 0.05197750777006149, -0.05042438954114914, 0.16475112736225128, 0.10620872676372528, -0.12207058072090149, -0.01440402865409851, -0.018821679055690765, -0.11771369725465775], [0.025783762335777283, -0.05426918715238571, -0.09126299619674683, -0.05684202164411545, -0.06302947551012039, 0.16911165416240692, 0.06780658662319183, 0.17396827042102814, 0.04847137629985809, 0.040027767419815063, 0.07267177104949951, 0.03034062683582306, -0.1387293040752411, -0.10453752428293228, -0.04282920062541962, 0.0026575326919555664, 0.06659433245658875, 0.06806756556034088, 0.14023931324481964, 0.03598691523075104, -0.060332685708999634, -0.13294072449207306, -0.12947313487529755, -0.10559534281492233, 0.053316473960876465, 0.09550751745700836, 0.15466417372226715, -0.05591654032468796, -0.013944670557975769, -0.05249621719121933, -0.0006459355354309082, 0.05674557387828827], [-0.003884047269821167, 0.041085343807935715, 0.022395342588424683, 0.0658348798751831, -0.05363428592681885, -0.11830462515354156, 0.026730351150035858, -0.03743477538228035, -0.07704368978738785, 0.056784939020872116, -0.0035720670130103827, -0.051780473440885544, -0.11231508105993271, -0.003589743748307228, -0.1780872344970703, 0.026102440431714058, 0.0026528239250183105, 0.08007729053497314, 0.0114145427942276, -0.008350138552486897, 0.04815627634525299, 0.13222628831863403, -0.093706876039505, 0.1162978857755661, 0.055552154779434204, -0.13406595587730408, 0.03941650688648224, -0.10601890087127686, -0.0781557634472847, -0.08426394313573837, -0.14000758528709412, 0.11803339421749115], [-0.1580066978931427, 0.14746983349323273, -0.15910112857818604, -0.021514788269996643, 0.010543346405029297, 0.11911217868328094, -0.02516213431954384, 0.04620920494198799, 0.03638072684407234, 0.09538497775793076, 0.008141748607158661, 0.1167776882648468, -0.082225501537323, -0.0643944963812828, 0.20617465674877167, -0.13316196203231812, -0.028768349438905716, 0.004803384188562632, 0.17286641895771027, -0.004991695750504732, -0.13458086550235748, -0.04742084816098213, 0.1516389101743698, 0.09847519546747208, 0.19786351919174194, -0.03573407605290413, 0.1020021066069603, -0.16635394096374512, 0.10974912345409393, 0.08122248947620392, 0.16392828524112701, -0.1030321717262268], [-0.04719555377960205, 0.10852524638175964, -0.12562011182308197, -0.14062249660491943, -0.1700667440891266, 0.016745686531066895, 0.14461985230445862, 0.042623165994882584, 0.010469958186149597, 0.061090026050806046, -0.10006516426801682, 0.06775346398353577, -0.021374264732003212, -0.050528913736343384, 0.19742433726787567, -0.12692922353744507, 0.02954055741429329, -0.14281684160232544, -0.005997449159622192, -0.05630487948656082, 0.05818559229373932, -0.09363410621881485, 0.17452943325042725, -0.10273969918489456, 0.16543230414390564, -0.1250825971364975, 0.13450832664966583, -0.07443472743034363, 0.03543660789728165, -0.03226235508918762, 0.16034965217113495, 0.053955912590026855], [-0.15577639639377594, -0.002264692448079586, -0.12195158749818802, 0.13215143978595734, 0.029044359922409058, -0.04794792830944061, -0.08919994533061981, 0.055072419345378876, -0.09706086665391922, 0.07760465145111084, 0.09034594148397446, 0.11427666991949081, 0.05754253268241882, -0.1375691294670105, 0.13628149032592773, -0.07087703049182892, -0.059905435889959335, 0.005163536407053471, 0.12924762070178986, 0.1539452075958252, 0.027296453714370728, 0.07988426834344864, -0.163627490401268, 0.0063959467224776745, -0.1774902045726776, 0.06618248671293259, -0.1294367015361786, -0.0630040392279625, 0.13389639556407928, 0.16894476115703583, -0.10359390825033188, -0.08565198630094528], [0.021893098950386047, 0.10028237849473953, -0.02879202365875244, -0.05520565062761307, -0.11611464619636536, 0.0936797559261322, 0.19297941029071808, -0.08078822493553162, 0.07450179010629654, 0.08656575530767441, 0.1255335807800293, 0.01598089002072811, 0.02370690181851387, 0.11876912415027618, 0.1438414305448532, 0.1859687715768814, -0.04543081670999527, 0.0690656378865242, 0.12343893945217133, -0.10592866688966751, 0.03511825203895569, -0.03955426812171936, 0.1525968462228775, -0.050530608743429184, 0.04560176655650139, 0.10241594165563583, -0.11662666499614716, -0.14926354587078094, -0.06412945687770844, 0.11338759958744049, 0.14835979044437408, -0.12948162853717804], [0.03370906412601471, -0.16294296085834503, -0.08205138146877289, 0.15245531499385834, 0.08538474142551422, -0.05538145452737808, -0.012222168035805225, 0.03987210988998413, 0.040097422897815704, -0.05820128321647644, -0.11437306553125381, 0.07533048093318939, 0.0025816101115196943, 0.03984756022691727, -0.10368120670318604, 0.08154302835464478, 0.12217666953802109, 0.09277135878801346, 0.04806482791900635, 0.1531752347946167, -0.00038661062717437744, 0.032473888248205185, 0.1132223829627037, 0.1470399796962738, -0.1332545131444931, 0.1559627652168274, 0.039263974875211716, -0.019787967205047607, 0.11937994509935379, -0.091575488448143, 0.07757224887609482, 0.1812898963689804], [-0.12192326784133911, -0.10431466996669769, -0.17517051100730896, -0.031813159584999084, -0.16054922342300415, -0.06866538524627686, 0.04430583864450455, 0.12495951354503632, 0.09847085177898407, 0.09007932245731354, 0.06477417796850204, -0.11718396097421646, -0.14720787107944489, 0.007328048348426819, 0.15924520790576935, 0.0025196289643645287, -0.0152045339345932, -0.1199849545955658, -0.08765265345573425, -0.1431572139263153, 0.14153949916362762, -0.02880217134952545, -0.16371168196201324, 0.018963664770126343, -0.0032986572477966547, -0.029721539467573166, 0.05384800583124161, 0.09506683051586151, -0.17794403433799744, -0.13542716205120087, -0.014474623836576939, -0.17009960114955902], [-0.16057683527469635, 0.1801384836435318, -0.013445541262626648, -0.08739669620990753, -0.06063738465309143, -0.14560995995998383, 0.15786617994308472, -0.02182028628885746, -0.09224717319011688, -0.14500120282173157, 0.0853426530957222, -0.0019686687737703323, -0.014431550167500973, -0.014955133199691772, -0.07097885012626648, 0.027266912162303925, 0.13600675761699677, -0.10245627164840698, 0.008469849824905396, -0.11713643372058868, -0.08289007842540741, 0.1551692634820938, 0.0162576325237751, 0.1720348596572876, -0.017208803445100784, -0.10164190828800201, -0.09689368307590485, 0.15667976438999176, -0.1129961833357811, 0.09277139604091644, 0.0666932687163353, 0.0740828663110733], [0.09974448382854462, -0.007586834020912647, 0.10938297212123871, -0.14084197580814362, -0.06219734996557236, 0.11375273019075394, 0.07764460146427155, -0.012321749702095985, -0.029830651357769966, -0.12534008920192719, 0.10944051295518875, 0.02906183898448944, 0.012818160466849804, 0.08267618715763092, 0.16671541333198547, -0.0836266428232193, -0.06413424015045166, 0.13395574688911438, 0.09983859956264496, -0.06254763901233673, -0.17487812042236328, 0.03279408812522888, 0.13895195722579956, 0.053367890417575836, 0.1625131219625473, -0.1293618381023407, 0.10190579295158386, -0.1098984107375145, 0.1263992041349411, 0.13147135078907013, 0.09443715214729309, 0.1561678647994995], [-0.11652263253927231, -0.15801937878131866, -0.16997170448303223, 0.11098597943782806, 0.06192663311958313, -0.15459150075912476, 0.09548376500606537, 0.15718477964401245, -0.16339464485645294, 0.11008983850479126, 0.002772861858829856, 0.023724494501948357, 0.16838575899600983, 0.20005697011947632, 0.08363223820924759, 0.1109071597456932, 0.05506763607263565, 0.05193590372800827, -0.15538866817951202, 0.0513681024312973, -0.12576711177825928, 0.04607189819216728, 0.03625848516821861, 0.0009484254405833781, -0.1258642077445984, -0.11082252115011215, 0.0951460599899292, 0.08609361946582794, 0.10507021844387054, -0.052675358951091766, -0.021727625280618668, -0.04333672672510147], [0.12156815826892853, -0.08428630232810974, 0.11134542524814606, 0.12188641726970673, -0.1616721898317337, -0.008643005043268204, -0.033958133310079575, -0.09449966996908188, 0.07630782574415207, -0.022559398785233498, 0.14140301942825317, -0.11852952837944031, 0.07514896243810654, -0.15715526044368744, -0.09029649198055267, 0.0006014365353621542, 0.1344413459300995, 0.08953148126602173, -0.14514876902103424, 0.019457662478089333, -0.10420805960893631, 0.0018059288850054145, -0.14944392442703247, -0.08973420411348343, 0.11208952963352203, -0.17573517560958862, -0.1676499843597412, 0.03219886124134064, 0.02287113107740879, -0.032329902052879333, 0.1536615937948227, -0.09998123347759247], [-0.10731763392686844, -0.13213634490966797, -0.03290212154388428, -0.04511427879333496, 0.10938002169132233, -0.00992584228515625, 0.05645427107810974, -0.07346073538064957, 0.1433999091386795, 0.1490260809659958, -0.1583157181739807, -0.04543153941631317, -0.14999456703662872, 0.07509948313236237, -0.1544468253850937, -0.08358211070299149, 0.1766303926706314, -0.16880746185779572, 0.13042663037776947, 0.014933928847312927, 0.14135678112506866, -0.08971228450536728, 0.11611197888851166, 0.021328777074813843, 0.013596326112747192, 0.12065578997135162, -0.16803105175495148, -0.14238500595092773, 0.17072446644306183, -0.10615379363298416, -0.1274220049381256, -0.008643433451652527], [-0.056586652994155884, -0.04661592096090317, -0.11843782663345337, 0.06378436088562012, -0.15211309492588043, -0.010232540778815746, 0.0896662250161171, 0.03322477266192436, 0.02786700800061226, -0.0004993497859686613, -0.07272575050592422, -0.04373009502887726, -0.08488734066486359, -0.1359548568725586, -0.10299363732337952, 0.1464664191007614, -0.0429736003279686, 0.05543164163827896, 0.12225063145160675, -0.01960356906056404, -0.09510128200054169, -0.12632662057876587, -0.07217715680599213, 0.06177480146288872, -0.1590784192085266, -0.04177473485469818, 0.021098364144563675, 0.14422418177127838, 0.045955460518598557, 0.034960538148880005, 0.10881862044334412, 0.06856376677751541], [0.0598059743642807, -0.054809004068374634, -0.1417570263147354, -0.038184136152267456, -0.0320608913898468, 0.012981981039047241, -0.01944194734096527, 0.071468785405159, 0.11747695505619049, -0.07166886329650879, -0.16773644089698792, -0.09069698303937912, -0.08458347618579865, 0.10020412504673004, -0.1140286773443222, -0.016627103090286255, -0.037465885281562805, -0.10729148238897324, 0.0801302045583725, -0.07363730669021606, -0.00914505124092102, -0.12428899109363556, -0.01782965660095215, 0.025117456912994385, -0.007193535566329956, -0.06605220586061478, 0.05251745879650116, -0.045802414417266846, -0.09800480306148529, -0.1303609013557434, -0.037446528673172, -0.16699713468551636], [0.14672817289829254, -0.06983336061239243, -0.07325948029756546, 0.01634107530117035, 0.04582639038562775, 0.009474044665694237, 0.1146642193198204, -0.09816042333841324, 0.05483723431825638, 0.019165288656949997, -0.11713064461946487, -0.07111310213804245, 0.033576153218746185, 0.00042028847383335233, 0.1265524923801422, 0.1507338583469391, -0.09118960052728653, -0.1004391759634018, -0.037483975291252136, -0.14220687747001648, -0.04772791266441345, -0.1357024610042572, 0.07723034918308258, 0.1386461853981018, 0.02737828902900219, -0.11894415318965912, -0.08130069822072983, -0.06881901621818542, 0.042215969413518906, 0.0043119341135025024, 0.031725019216537476, 0.16445951163768768], [0.08210252225399017, 0.05530707165598869, -0.03576579689979553, 0.08362402021884918, 0.0646720826625824, -0.1808735877275467, -0.11252794414758682, 0.020741501823067665, 0.07554160803556442, 0.06266139447689056, -0.12100955098867416, -0.1827850639820099, -0.018801404163241386, -0.003851200919598341, 0.05002276226878166, -0.07530391216278076, 0.13514982163906097, 0.02036222256720066, 0.12909062206745148, -0.12101732194423676, 0.07071703672409058, 0.013927577063441277, -0.08071480691432953, 0.09817837178707123, -0.1845613718032837, 0.1250535100698471, -0.022161008790135384, 0.017068251967430115, 0.0791887640953064, 0.014674648642539978, 0.06826610118150711, 0.10208022594451904], [-0.13796687126159668, 0.11694847047328949, -0.026470333337783813, -0.041109248995780945, 0.035581886768341064, 0.1382661908864975, -0.09609849750995636, -0.1191353127360344, 0.10970889031887054, -0.08302634209394455, 0.05691327154636383, -0.026043817400932312, 0.04865831136703491, 0.13490094244480133, -0.08959025144577026, -0.08578329533338547, 0.08673031628131866, 0.009678959846496582, -0.019455716013908386, -0.1552785485982895, 0.14977551996707916, -0.006694689393043518, -0.03256003558635712, -0.07256504893302917, -0.03488479554653168, 0.08591954410076141, -0.004062920808792114, 0.15118096768856049, -0.010206148028373718, -0.02535998821258545, 0.09978188574314117, -0.004574194550514221], [-0.03528338670730591, 0.00367463449947536, 0.1394115835428238, 0.044114530086517334, 0.12309281527996063, 0.09277816861867905, 0.025641748681664467, 0.05960765480995178, 0.06143823638558388, 0.0010423947824165225, 0.1296994686126709, 0.12447915226221085, 0.04660433530807495, -0.014078052714467049, 0.12390143424272537, -0.16523395478725433, 0.12424827367067337, 0.09436148405075073, 0.11351470649242401, -0.023761563003063202, -0.13189272582530975, 0.11805116385221481, -0.1294393539428711, 0.012967772781848907, 0.04696338251233101, -0.17218030989170074, -0.04248286783695221, -0.06279575079679489, 0.10140607506036758, -0.11255397647619247, 0.0717456266283989, 0.10906356573104858], [0.0975303202867508, 0.20262593030929565, 0.02677302062511444, -0.16022706031799316, 0.12619467079639435, 0.009378336369991302, 0.015855148434638977, -0.1748766452074051, -0.03873433172702789, -0.09733396023511887, 0.16743406653404236, 0.1430334746837616, 0.1283520609140396, 0.14158599078655243, -0.09759513288736343, -0.08335583657026291, -0.06131475046277046, -0.06674259155988693, 0.13760866224765778, 0.06321549415588379, 0.14166070520877838, -0.008056140504777431, -0.1317942589521408, -0.04256238415837288, 0.1458258479833603, 0.10483619570732117, 0.05960208922624588, -0.05185350030660629, -0.14978167414665222, -0.09498683363199234, 0.10168405622243881, -0.08099016547203064], [0.0845591276884079, 0.1026524156332016, -0.06789768487215042, 0.107670858502388, -0.0568041130900383, -0.003348299767822027, -0.020470112562179565, -0.15114957094192505, 0.029322007670998573, 0.008052265271544456, -0.07303033769130707, 0.15098896622657776, -0.14450614154338837, -0.11987191438674927, -0.0644671842455864, -0.09537240862846375, -0.019632488489151, -0.034161701798439026, 0.08067883551120758, -0.11579819768667221, 0.026029929518699646, 0.003061354160308838, 0.09296052902936935, 0.1921636462211609, 0.15899884700775146, -0.0807904377579689, -0.2050527036190033, -0.04279780387878418, -0.045423541218042374, 0.061749011278152466, 0.0455545149743557, 0.15663795173168182], [0.06943897902965546, -0.04229476675391197, 0.006075799465179443, 0.04233554005622864, -0.021935731172561646, 0.14264722168445587, -0.15846160054206848, 0.09564400464296341, -0.11559216678142548, -0.15487077832221985, -0.036291658878326416, 0.07847461849451065, 0.11773701757192612, 0.03354688361287117, -0.019793612882494926, -0.03387750685214996, -0.08734797686338425, -0.022269519045948982, -0.01221419870853424, 0.1411156803369522, 0.10345752537250519, -0.14146094024181366, -0.001850745058618486, -0.1087300181388855, -0.03547878563404083, -0.13860708475112915, 0.059279799461364746, -0.12746979296207428, 0.1624390184879303, 0.13350220024585724, -0.12685951590538025, -0.17594747245311737], [0.006897419691085815, -0.08103101700544357, 0.05189575254917145, -0.11966263502836227, 0.07236199080944061, -0.15269075334072113, -0.1249442771077156, -0.0929318219423294, 0.08554072678089142, -0.004628226161003113, -0.1698874533176422, -0.13110144436359406, -0.09661698341369629, -0.1640186458826065, -0.008061246946454048, 0.06299223005771637, -0.03243456780910492, -0.0703473687171936, -0.0010720640420913696, -0.15531311929225922, -0.10763959586620331, -0.00403161346912384, 0.12564462423324585, -0.05436030775308609, 0.05573882535099983, -0.06957053393125534, -0.06214489787817001, -0.16828159987926483, 0.11840369552373886, 0.17213232815265656, -0.035006243735551834, 0.11231856048107147], [0.1445930153131485, 0.09954367578029633, 0.0910433977842331, -0.16828975081443787, -0.16611187160015106, -0.1358412653207779, 0.0671619102358818, -0.15040183067321777, -0.12400294095277786, -0.09017091244459152, -0.14637373387813568, 0.013034461066126823, 0.0363326370716095, -0.06674154102802277, 0.1311178356409073, -0.04169052839279175, -0.0679851621389389, 0.1519511342048645, 0.1517719179391861, -0.0029412289150059223, -0.12690411508083344, -0.08868339657783508, 0.03917526826262474, 0.10455258935689926, 0.09651046991348267, -0.06486909091472626, -0.1814255714416504, -0.15470558404922485, -0.0433608703315258, 0.002217516303062439, -0.062231265008449554, -0.1218799576163292], [0.01863008737564087, -0.14185017347335815, -0.13575109839439392, -0.14370989799499512, -0.04790179431438446, 0.14702904224395752, 0.07097961008548737, -0.02491842210292816, 0.04709838703274727, 0.0699707418680191, 0.0010299384593963623, -0.1429157704114914, -0.10928686708211899, -0.12123298645019531, -0.0033830536995083094, -0.1588810831308365, -0.032141730189323425, -0.06801246106624603, 0.17348335683345795, 0.14437788724899292, 0.10268138349056244, 0.009914040565490723, -0.055318683385849, 0.045090511441230774, -0.1199779063463211, -0.07537642866373062, -0.02878604643046856, -0.04153451323509216, -0.1663087159395218, 0.070274218916893, 0.14692556858062744, -0.09825810045003891], [0.04765303432941437, -0.02569929137825966, -0.0064474791288375854, 0.010304316878318787, 0.15319158136844635, 0.04314412176609039, -0.126155287027359, -0.06161954626441002, 0.0814242959022522, 0.07607535272836685, 0.01939932256937027, -0.03558484837412834, -0.07586172968149185, -0.07637333869934082, -0.10309198498725891, 0.05139431357383728, 0.04964633285999298, 0.1287398636341095, -0.03993622958660126, 0.0005743318470194936, 0.11424891650676727, 0.08323746919631958, 0.01212800107896328, 0.04792625457048416, -0.007986152544617653, -0.1319914162158966, 0.03111724741756916, -0.03863966464996338, 0.147438183426857, 0.15956352651119232, 0.024522170424461365, 0.16123813390731812], [-0.09104334563016891, 0.15364964306354523, 0.15220211446285248, -0.006756588816642761, -0.14186495542526245, -0.057045191526412964, -0.04727491736412048, 0.002920001745223999, -0.16027480363845825, 0.03276123106479645, -0.07351995259523392, -0.045262113213539124, -0.09130378812551498, -0.037323564291000366, -0.16417695581912994, -0.09372133761644363, 0.01628553867340088, 0.11583749949932098, 0.16064544022083282, -0.13372370600700378, 0.07423226535320282, -0.09964827448129654, -0.1366761326789856, -0.007784411311149597, -0.10140735656023026, -0.15224827826023102, -0.165204256772995, -0.11832518875598907, 0.14526371657848358, 0.09858979284763336, -0.06997653841972351, -0.11832030117511749], [-0.13598401844501495, -0.11851169168949127, -0.07274331152439117, 0.10617019236087799, 0.057851314544677734, -0.0443437397480011, 0.09428782016038895, -0.10234437882900238, -0.14978857338428497, 0.062391649931669235, -0.0743851289153099, 0.024255700409412384, 0.13293926417827606, -0.10418824851512909, -0.1466156542301178, 0.0944051668047905, -0.16488401591777802, 0.13490630686283112, -0.08348388969898224, 0.06347911804914474, -0.1405678242444992, -0.11215926706790924, -0.004328254144638777, 0.06735561788082123, 0.11836405098438263, 0.1521700769662857, 0.010251663625240326, -0.022727683186531067, 0.002735932357609272, -0.04106363654136658, -0.014035259373486042, -0.16194891929626465], [-0.14511731266975403, 0.11926888674497604, -0.10330063849687576, 0.1392090767621994, 0.019400134682655334, 0.06735045462846756, 0.14822368323802948, -0.09209775179624557, -0.03483669459819794, 0.055771272629499435, 0.08445440232753754, -0.17561210691928864, 0.05733660236001015, -0.13563679158687592, 0.021837864071130753, 0.15059320628643036, -0.025863245129585266, -0.023810388520359993, -0.013207942247390747, 0.13541704416275024, 0.10046739876270294, 0.03707340732216835, -0.10301192104816437, -0.07551519572734833, 0.1429077386856079, 0.13147307932376862, 0.14038477838039398, -0.13783584535121918, 0.12615841627120972, -0.016898423433303833, 0.13099808990955353, 0.15754719078540802], [0.019376680254936218, -0.07356002926826477, 0.16628514230251312, -0.09212188422679901, 0.11550848186016083, -0.1695094108581543, -0.05559854209423065, -0.15412358939647675, -0.07929781824350357, 0.07506276667118073, -0.12666545808315277, -0.15287719666957855, 0.12640158832073212, 0.09436701238155365, -0.001933082938194275, -0.12462064623832703, -0.046834588050842285, -0.05723685026168823, 0.10917560756206512, -0.057821281254291534, -0.050914451479911804, -0.1253097802400589, -0.08325964212417603, 0.09571550786495209, 0.11389465630054474, 0.02568340301513672, -0.06632628291845322, 0.16979236900806427, 0.03489217162132263, -0.06823518127202988, -0.06127030402421951, -0.024740055203437805], [0.08380942046642303, 0.10058183968067169, 0.1281561404466629, -0.00796501338481903, 0.146210715174675, -0.050703875720500946, -0.049119479954242706, -0.04901993274688721, -0.16055609285831451, -0.1207854151725769, -0.1599607765674591, 0.020624494180083275, 0.013337289914488792, -0.010380030609667301, -0.09877631068229675, 0.17841143906116486, -0.058573223650455475, 0.08424343168735504, 0.12310908734798431, -0.08948590606451035, -0.022101178765296936, 0.10217113792896271, 0.19529154896736145, -0.0009991934057325125, 0.15887729823589325, -0.11665003001689911, -0.14073793590068817, 0.14536969363689423, 0.009500810876488686, 0.1746416836977005, 0.04006483778357506, -0.030320879071950912], [0.16788755357265472, 0.17248453199863434, 0.016405940055847168, -0.1071629747748375, -0.0076538920402526855, -0.10657716542482376, 0.13162106275558472, 0.0010535743786022067, 0.03997461870312691, 0.08308136463165283, 0.03904704749584198, -0.10906592011451721, 0.13772697746753693, 0.1310899555683136, -0.11014106869697571, 0.11089173704385757, 0.05830970034003258, -0.031292591243982315, -0.12642420828342438, -0.029712218791246414, -0.17331953346729279, 0.09711813926696777, 0.13336877524852753, -0.062064968049526215, 0.1714649200439453, -0.07015353441238403, 0.011267540045082569, -0.123194620013237, -0.0029788659885525703, 0.07145841419696808, 0.07489781081676483, -0.0189821720123291], [-0.08914182335138321, 0.12179059535264969, 0.1170378178358078, 0.028369218111038208, -0.08129534870386124, 0.051075391471385956, -0.013451999053359032, 0.1651490479707718, 0.014897824265062809, 0.021573573350906372, 0.02492368221282959, 0.07978278398513794, -0.020365554839372635, 0.11288877576589584, 0.07710986584424973, -0.11530370265245438, 0.006658133119344711, -0.17697349190711975, -0.13573065400123596, 0.011778504587709904, 0.03972502052783966, -0.008029027841985226, 0.1584550142288208, -0.07559262961149216, -0.07436637580394745, -0.029029039666056633, 0.03168724104762077, -0.01497340202331543, 0.14299368858337402, -0.07466099411249161, -0.10662470012903214, 0.009616298601031303], [0.13277383148670197, 0.0888364240527153, 0.09523536264896393, 0.03422136604785919, 0.15066473186016083, 0.14253079891204834, 0.15903624892234802, -0.04026355594396591, -0.1550300270318985, -0.060687821358442307, 0.08021152019500732, 0.169772207736969, -0.042899806052446365, 0.15272578597068787, 0.06959488987922668, 0.05258100852370262, 0.012120217084884644, -0.02691148966550827, 0.1654963344335556, 0.03184373304247856, 0.10827730596065521, -0.14920197427272797, -0.04028833657503128, 0.051580678671598434, 0.2033585011959076, 0.08015864342451096, 0.11850830167531967, -0.17465388774871826, 0.042274896055459976, -0.11669059097766876, -0.10792623460292816, 0.011208444833755493], [-0.11184755712747574, 0.15197569131851196, -0.09608551859855652, 0.05696949362754822, 0.10376136004924774, -0.1373974084854126, 0.08108852058649063, -0.023669704794883728, 0.08797575533390045, 0.17107294499874115, -0.07533612102270126, -0.08488421142101288, 0.13150593638420105, 0.011346117593348026, -0.02610432356595993, 0.13411487638950348, -0.09063720703125, -0.014056084677577019, 0.1214236468076706, 0.060020316392183304, -0.11434178054332733, 0.04594719409942627, -0.14016404747962952, -0.0960027202963829, 0.10798703134059906, -0.04711316525936127, -0.09004246443510056, 0.012530341744422913, 0.03402702510356903, -0.10988736897706985, -0.12760142982006073, -0.18328329920768738], [0.04567618668079376, -0.16054180264472961, 0.013471856713294983, -0.03953756392002106, -0.11558720469474792, -0.05554502084851265, -0.16261348128318787, -0.09357371181249619, 0.005938983988016844, -0.14460191130638123, -0.1550581008195877, 0.11440786719322205, 0.008759737014770508, -0.10477591305971146, -0.019270893186330795, 0.1322869211435318, -0.16087880730628967, -0.09599436819553375, -0.12783437967300415, -0.017859745770692825, -0.006083399057388306, -0.14125272631645203, 0.09983045607805252, -0.1476476788520813, 0.12815286219120026, -0.11756357550621033, -0.02318761497735977, 0.033054932951927185, -0.09411926567554474, 0.1625712662935257, -0.14078548550605774, -0.002187770325690508], [-0.1298002302646637, 0.0359463170170784, 0.15071754157543182, 0.16397561132907867, 0.02098582684993744, -0.0885024145245552, 0.16091471910476685, 0.013192906975746155, 0.1151970699429512, -0.09182088822126389, -0.08204088360071182, -0.15882658958435059, 0.1422569453716278, 0.022861957550048828, -0.14769138395786285, 0.01518315076828003, -0.0758204311132431, 0.008831128478050232, 0.058676257729530334, -0.0980212539434433, 0.03084743022918701, -0.11161355674266815, 0.013315604068338871, -0.1542881429195404, 0.011550397612154484, 0.17563103139400482, 0.17881380021572113, 0.06448480486869812, 0.11504587531089783, 0.17187254130840302, 0.03392598778009415, 0.03311142697930336], [0.022986993193626404, 0.09923821687698364, 0.1518583446741104, -0.08313107490539551, -0.007267206907272339, -0.0991441085934639, 0.024058790877461433, -0.17180128395557404, 0.05325423926115036, -0.05518059805035591, 0.051205746829509735, 0.0030817401129752398, -0.11956515163183212, 0.060321126133203506, 0.024548161774873734, -0.16193483769893646, 0.17406535148620605, 0.13447348773479462, 0.10998733341693878, -0.046466052532196045, 0.0626298189163208, -0.09596175700426102, -0.12670744955539703, 0.054063666611909866, 0.016925865784287453, 0.06151179224252701, -0.2012380212545395, 0.1464911550283432, -0.11287806183099747, 0.15298540890216827, 0.09419701993465424, 0.06224144995212555], [0.1761208325624466, 0.14250105619430542, 0.10367701947689056, -0.060028448700904846, 0.16395781934261322, 0.023326607421040535, 0.1264522820711136, -0.04686138033866882, 0.1337762027978897, 0.13319045305252075, -0.15423865616321564, 0.1659647673368454, -0.11420296132564545, -0.07735375314950943, -0.12942829728126526, 0.0297805555164814, -0.12754441797733307, -0.053727444261312485, -0.08886312693357468, 0.06043950468301773, -0.1735524833202362, -0.08606760203838348, 0.02835630066692829, 0.020428325980901718, -0.052306875586509705, 0.05864112451672554, -0.12714490294456482, -0.14971037209033966, -0.0034924952778965235, -0.0955740287899971, 0.13034754991531372, -0.13084599375724792], [-0.014840811491012573, 0.054488975554704666, -0.15481023490428925, 0.13684634864330292, -0.08032293617725372, -0.04810382425785065, -0.14086413383483887, -0.06587366759777069, -0.06834041327238083, -0.14948102831840515, 0.06040593981742859, -0.033477783203125, 0.146761953830719, 0.09379441291093826, 0.1284816563129425, 0.08839509636163712, 0.09288893640041351, 0.1435568630695343, 0.1451406627893448, -0.15491054952144623, -0.03963842988014221, -0.1704949140548706, -0.016284937039017677, -0.062435708940029144, 0.12463828176259995, 0.021251488476991653, 0.01397179439663887, -0.12787184119224548, -0.16869880259037018, 0.027828872203826904, -0.11633521318435669, -0.07636275142431259], [0.12399725615978241, -0.12747876346111298, -0.07868415862321854, 0.13573049008846283, 0.06906643509864807, -0.10058072954416275, 0.01654512621462345, 0.09594596177339554, -0.16645009815692902, 0.0314311757683754, 0.040230028331279755, -0.04970809444785118, 0.13547715544700623, -0.1490722894668579, 0.054928090423345566, -0.09569758176803589, -0.1565682739019394, 0.08995753526687622, -0.08480371534824371, -0.024097977206110954, 0.09296728670597076, -0.14055953919887543, -0.19673851132392883, 0.060185566544532776, 0.11582665890455246, -0.026537828147411346, 0.10805167257785797, 0.062119439244270325, 0.013045720756053925, -0.11270785331726074, 0.1277892142534256, 0.06992688775062561], [0.027333825826644897, 0.1410001814365387, -0.15189136564731598, 0.038092538714408875, -0.08321385085582733, -0.010790030471980572, 0.07202545553445816, 0.08024158328771591, 0.0521174855530262, -0.13114729523658752, -0.10457725077867508, 0.020132143050432205, -0.016735292971134186, -0.10967230796813965, 0.19372452795505524, 0.02314787730574608, -0.13375017046928406, 0.09664518386125565, 0.07680933177471161, -0.06661710143089294, 0.08864365518093109, -0.109662264585495, 0.08338489383459091, 0.16841015219688416, 0.1294817477464676, 0.09228017926216125, -0.03203347697854042, 0.03318712115287781, 0.07728584110736847, 0.04317714273929596, -0.01481330581009388, 0.039833348244428635], [-0.0716000571846962, -0.09992604702711105, -0.16313594579696655, -0.14412759244441986, -0.11096542328596115, 0.16897909343242645, 0.0353756844997406, -0.15991581976413727, -0.09036275744438171, 0.041291385889053345, -0.052910372614860535, -0.050038471817970276, -0.0663822740316391, -0.04317590594291687, 0.02033412456512451, 0.010468393564224243, 0.11357583105564117, 0.11312706768512726, 0.14548571407794952, -0.005623459815979004, -0.07893428206443787, 0.0006032288074493408, -0.11706405133008957, 0.07232317328453064, -0.02132818102836609, -0.05661741644144058, -0.14987337589263916, 0.08519159257411957, 0.09867240488529205, 0.1612604707479477, -0.06262669712305069, 0.05326467752456665], [0.006663516163825989, -0.11260148137807846, -0.11051173508167267, 0.09052468836307526, -0.10152699053287506, 0.12872587144374847, 0.06175859272480011, 0.06037074327468872, 0.11642079055309296, 0.0865173488855362, 0.07624070346355438, 0.0917191356420517, -0.07501816749572754, -0.09374139457941055, -0.03238573670387268, 0.09814082086086273, 0.12371315062046051, 0.1301804631948471, -0.05576185882091522, -0.022430256009101868, -0.12141377478837967, 0.1089998334646225, -0.11722538620233536, -0.07274158298969269, 0.14597608149051666, 0.04295901954174042, -0.07400429993867874, -0.11903643608093262, -0.12156474590301514, 0.14266331493854523, -0.16157466173171997, 0.152757927775383], [0.14141522347927094, 0.014599927701056004, -0.014169514179229736, 0.1374831348657608, 0.07795439660549164, 0.19133156538009644, 0.12310779094696045, -0.11017592251300812, 0.10201653838157654, 0.10972169041633606, -0.10074545443058014, 0.07172723859548569, -0.10174064338207245, -0.11947646737098694, -0.00844197440892458, 0.008123585022985935, -0.05568650737404823, -0.13407720625400543, 0.09670357406139374, 0.15959878265857697, -0.03917050361633301, -0.11073768883943558, -0.016251306980848312, -0.13967594504356384, -0.14856278896331787, -0.0552571676671505, 0.15337426960468292, -0.13543111085891724, -0.04533124715089798, -0.09179486334323883, -0.17148439586162567, -0.039902616292238235], [-0.010297417640686035, -0.0297233909368515, 0.12924768030643463, 0.07081007957458496, 0.11006025969982147, 0.06924152374267578, 0.018546968698501587, 0.09594716131687164, -0.11277461796998978, 0.09007366001605988, 0.08420117199420929, -0.07502522319555283, -0.0060670822858810425, -0.13372741639614105, -0.15468809008598328, -0.00019529461860656738, 0.03165280818939209, -0.03813174366950989, 0.054615169763565063, -0.13647200167179108, -0.09717103093862534, 0.1220104843378067, -0.1720341444015503, 0.027757719159126282, 0.13609550893306732, 0.13252724707126617, 0.06030179560184479, -0.1610260158777237, 0.022757694125175476, -0.062164999544620514, -0.04969364404678345, 0.13544495403766632], [-0.06007622182369232, -0.08286643028259277, -0.14190538227558136, 0.11161394417285919, 0.00852993130683899, 0.1745961457490921, 0.07114404439926147, -0.16474151611328125, 0.04029285907745361, 0.16175846755504608, 0.1096421331167221, 0.08982828259468079, -0.1001148372888565, -0.1307213306427002, 0.1544380635023117, -0.12996530532836914, 0.04032868146896362, -0.03136547654867172, 0.059234440326690674, 0.026394670829176903, -0.13464556634426117, -0.0704645961523056, 0.19657936692237854, 0.020809397101402283, 0.1290513128042221, -0.08648208528757095, 0.173235684633255, -0.03784149885177612, -0.03072528727352619, 0.035859957337379456, -0.027719512581825256, -0.049576535820961], [-0.025295913219451904, -0.02778630517423153, -0.10054240375757217, 0.060424670577049255, -0.1713288575410843, 0.07961788028478622, 0.16626770794391632, 0.023717103525996208, -0.03175658732652664, -0.18398931622505188, 0.05365866795182228, 0.13890711963176727, 0.1543758362531662, 0.0472509004175663, 0.05372226983308792, 0.1355498731136322, 0.012244914658367634, -0.06641931086778641, -0.16783680021762848, 0.08907757699489594, 0.0688621997833252, 0.14801789820194244, -0.10483936965465546, 0.06214950606226921, -0.07919417321681976, -0.0493718683719635, 0.056180376559495926, -0.16204729676246643, 0.13324883580207825, 0.08221857249736786, -0.11111678928136826, 0.09123581647872925], [-0.04446505010128021, 0.015909388661384583, -0.047315776348114014, -0.17308439314365387, -0.018308401107788086, 0.08625279366970062, -0.020567402243614197, -0.08704710751771927, 0.005601271986961365, 0.0322594940662384, -0.049323469400405884, -0.13708750903606415, -0.09477762132883072, -0.02882044017314911, 0.06366485357284546, 0.1572028249502182, 0.0032807737588882446, 0.06329350173473358, 0.10171221196651459, -0.0770837813615799, -0.05865749716758728, 0.1172570139169693, 0.12657003104686737, 0.041888803243637085, -0.13660992681980133, 0.10033605992794037, -0.1461050659418106, 0.08835695683956146, 0.020950570702552795, 0.057101473212242126, -0.17231270670890808, -0.06215031445026398], [0.07507644593715668, 0.16132110357284546, -0.05060949921607971, 0.15764056146144867, -0.03944927453994751, -0.08542628586292267, -0.056299932301044464, -0.005550757981836796, -0.03233852982521057, 0.09323982894420624, -0.08901271224021912, -0.027496861293911934, -0.18375368416309357, 0.15637049078941345, -0.012699505314230919, -0.13572010397911072, -0.0033015001099556684, -0.007056352216750383, 0.049095869064331055, -0.010704792104661465, 0.11120368540287018, -0.06099215894937515, -0.024560051038861275, -0.005379600916057825, 0.06347739696502686, 0.19049111008644104, 0.07364813983440399, 0.1360170990228653, 0.1570233702659607, -0.09203876554965973, 0.007306839805096388, -0.0865061804652214], [0.07353450357913971, -0.06214921176433563, 0.053925707936286926, 0.010561451315879822, -0.11604778468608856, -0.11884593963623047, -0.1726621836423874, -0.09888561069965363, 0.049383342266082764, 0.010770261287689209, 0.13295410573482513, -0.15544229745864868, -0.005165725946426392, -0.15850679576396942, 0.0010347962379455566, 0.06440621614456177, -0.1585763543844223, 0.15612076222896576, -0.0549052432179451, 0.1566305309534073, -0.029672160744667053, 0.10028804838657379, 0.16070355474948883, -0.06435970962047577, -0.042972058057785034, 0.09272457659244537, -0.15134400129318237, 0.10463906824588776, -0.1110357865691185, 0.16418372094631195, -0.11585331708192825, -0.07274562865495682], [0.13190819323062897, -0.08896192908287048, 0.1515243798494339, 0.12162582576274872, 0.16157592833042145, -0.17134647071361542, -0.020918361842632294, -0.05757876858115196, 0.03431146964430809, -0.13617707788944244, 0.0724879801273346, -0.03706303983926773, -0.10925828665494919, -0.17713937163352966, 0.06210406497120857, -0.06151458993554115, 0.1356678456068039, 0.005177308339625597, 0.05376492440700531, -0.05264053866267204, -0.024487808346748352, -0.060052745044231415, -0.18756155669689178, 0.11113886535167694, -0.1302250325679779, 0.09766846150159836, -0.06597461551427841, 0.11074511706829071, 0.12256034463644028, -0.10811770707368851, 0.11968068033456802, -0.007101734168827534], [-0.13504520058631897, 0.03882765769958496, 0.1000979095697403, 0.1558307260274887, -0.1682773232460022, 0.14446404576301575, 0.11285723000764847, 0.1805577427148819, 0.09567762166261673, -0.09884032607078552, 0.1203204095363617, 0.1410701423883438, -0.08031521737575531, -0.05135399475693703, 0.12227030843496323, 0.12526412308216095, 0.10880529135465622, 0.1240561380982399, -0.0908452570438385, -0.043869420886039734, -0.07062385231256485, 0.09233522415161133, 0.022234352305531502, -0.13950878381729126, -0.045347392559051514, -0.1514769196510315, -0.19269002974033356, 0.16115455329418182, -0.10998385399580002, 0.07890067994594574, -0.053311098366975784, -0.03869466111063957], [-0.00011417269706726074, 0.1526021659374237, -0.024454593658447266, 0.14627663791179657, 0.10343341529369354, 0.13565485179424286, -0.15262942016124725, -0.09921232610940933, -0.15300394594669342, -0.032762642949819565, -0.019227297976613045, 0.04229281097650528, 0.15116451680660248, 0.07191991060972214, -0.11998744308948517, -0.09123304486274719, 0.1433536410331726, 0.014654791913926601, 0.049940258264541626, -0.09692712873220444, -0.021557778120040894, 0.05867856740951538, -0.10810189694166183, 0.14841435849666595, 0.09557947516441345, -0.08993569761514664, -0.028230948373675346, -0.04156038165092468, 0.028533123433589935, -0.06484521925449371, 0.17108693718910217, -0.16885142028331757], [-0.09991409629583359, -0.1034061461687088, 0.04779694974422455, 0.025085851550102234, -0.05037359893321991, 0.14064829051494598, -0.1584734469652176, 0.05581352487206459, -0.09495150297880173, -0.060418032109737396, -0.1764257699251175, -0.14018256962299347, -0.16567423939704895, 0.07482042163610458, -0.07826169580221176, 0.07522840052843094, -0.09057529270648956, -0.05230891704559326, 0.021398290991783142, 0.13795529305934906, -0.04764372110366821, 0.10317757725715637, 0.04062940552830696, 0.12685281038284302, 0.11675431579351425, 0.06600125133991241, -0.08679898083209991, -0.049615293741226196, 0.06058916822075844, 0.09635080397129059, -0.01857622340321541, 0.06699655205011368], [-0.10635223984718323, 0.07352399080991745, -0.021693125367164612, -0.1216527447104454, -0.08589297533035278, -0.13500404357910156, 0.008368106558918953, -0.11109728366136551, -0.05835823714733124, -0.015781275928020477, -0.12441925704479218, -0.03380023315548897, -0.05539543554186821, 0.04336071386933327, 0.09475763887166977, -0.09496196359395981, 0.10188058763742447, -0.028207236900925636, -0.10103758424520493, -0.10550802201032639, 0.04499638080596924, 0.036807283759117126, -0.0429413802921772, -0.08381718397140503, 0.060267917811870575, 0.03398097679018974, -0.1659238487482071, -0.03124116361141205, -0.08255714178085327, -0.07543230056762695, -0.12576858699321747, -0.1448872834444046], [0.17410807311534882, -0.09761524945497513, 0.16432760655879974, -0.13896483182907104, -0.04288911819458008, -0.07719267159700394, -0.050521280616521835, 0.05712273716926575, 0.11066269129514694, -0.14848890900611877, -0.09786759316921234, 0.14450691640377045, 0.00491699855774641, 0.10700439661741257, 0.14339834451675415, -0.07049749791622162, -0.09617003053426743, 0.09398239850997925, -0.06473475694656372, -0.08151032775640488, -0.08916892856359482, -0.0821949914097786, 0.2383531630039215, 0.061340153217315674, 0.13014762103557587, 0.03472166135907173, -0.1009761244058609, 0.12756876647472382, 0.018181931227445602, -0.04577295482158661, 0.1963411569595337, -0.08886011689901352]], "fc1.bias": [0.04362936317920685, -0.1555221676826477, 0.08948998153209686, 0.07515144348144531, -0.14767985045909882, 0.08389195054769516, 0.016844352707266808, -0.09128128737211227, 0.12611310184001923, 0.10872025787830353, 0.10005991905927658, -0.0600062794983387, -0.06379486620426178, -0.12450142204761505, 0.05847430229187012, 0.07881022989749908, -0.07662682980298996, 0.16016244888305664, 0.09931675344705582, -0.067494697868824, 0.07472843676805496, -0.07493534684181213, 0.06251870840787888, 0.12962377071380615, -0.15636463463306427, -0.12413370609283447, -0.0007901650969870389, 0.04515848308801651, -0.1548919379711151, -0.1472259908914566, -0.006006155163049698, -0.024224499240517616, 0.03569701313972473, 0.022462651133537292, 0.023284941911697388, 0.013816346414387226, 0.020318210124969482, 0.0061480021104216576, 0.05889201909303665, 0.11529559642076492, -0.03495952859520912, -0.10052616894245148, 0.06652131676673889, -0.14159813523292542, 0.07607060670852661, 0.09109816700220108, 0.002867118688300252, -0.1134861558675766, 0.018646301701664925, -0.13976915180683136, -0.15904274582862854, 0.1623525321483612, -0.15855565667152405, -0.10169178247451782, -0.07867401838302612, 0.009927317500114441, 0.0694384053349495, -0.08711245656013489, -0.0424315370619297, -0.06276663392782211, 0.15753857791423798, 0.1355246603488922, 0.05040043219923973, 0.04039771854877472], "fc2.weight": [[0.11443562805652618, -0.09996464848518372, 0.034982211887836456, -0.03252234309911728, 0.08660197257995605, -0.09044100344181061, 0.04761367663741112, -0.10277293622493744, 0.07731512933969498, 0.056987326592206955, 0.14248470962047577, -0.08830282837152481, 0.14021506905555725, -0.08039300888776779, -0.0628754124045372, 0.08902165293693542, 0.011743657290935516, -0.07922665774822235, -0.10933174192905426, -0.032453134655952454, 0.0342264361679554, 0.10979433357715607, 0.10396458953619003, -0.007902842015028, -0.07667423784732819, -0.0958043560385704, 0.12624801695346832, -0.030378662049770355, -0.022453254088759422, -0.09764988720417023, -0.058053188025951385, 0.009247411973774433, -0.03074708767235279, 0.014314234256744385, -0.009605561383068562, 0.01470378041267395, -0.02476806938648224, -0.006973687559366226, 0.07989136874675751, 0.11104939132928848, 0.16400150954723358, -0.09700502455234528, -0.07616815716028214, 0.0027671644929796457, -0.005092288833111525, 0.09981914609670639, 0.09308850020170212, 0.02015472948551178, -0.05683522671461105, -0.014148727059364319, 0.08084100484848022, 0.0416022390127182, -0.08840170502662659, 0.07467596977949142, -0.10660572350025177, -0.050369903445243835, 0.11179257929325104, -0.05422297120094299, 0.05134574696421623, -0.08171176165342331, 0.10728343576192856, 0.037788644433021545, 0.05851775407791138, 0.0721418708562851], [-0.025944344699382782, -0.06169524043798447, -0.05610949173569679, -0.10147064179182053, 0.10902483016252518, -0.0474846251308918, -0.007018935866653919, -0.11751335859298706, 0.014470962807536125, -0.07051482796669006, -0.12887082993984222, 0.015274587087333202, -0.13301284611225128, -0.011262524873018265, -0.09398891031742096, 0.054764024913311005, -0.12180836498737335, 0.007496089208871126, 0.06521759182214737, -0.09987670183181763, 0.06936280429363251, 0.10180169343948364, -0.07928919792175293, -0.003087147604674101, 0.03790539503097534, 0.0901552215218544, 0.07904468476772308, -0.1294252574443817, -0.09605737775564194, -0.08389727026224136, -0.07555233687162399, -0.019453290849924088, -0.045620810240507126, 0.08236533403396606, -0.07408475875854492, -0.10671712458133698, -0.09771457314491272, -0.09044186025857925, 0.09624409675598145, 0.00069097412051633, -0.02562887966632843, -0.025660814717411995, -0.12043552845716476, -0.05331447347998619, 0.05684985965490341, 0.05971594899892807, 0.10425535589456558, 0.011517017148435116, -0.09070724993944168, -0.0737958550453186, 0.12148170173168182, -0.10610762238502502, 0.02959306538105011, -0.06719422340393066, 0.10728047788143158, 0.0732199102640152, -0.03695660084486008, -0.10371994972229004, 0.019938962534070015, -0.09725511074066162, -0.026639951393008232, 0.02348560467362404, 0.0644579604268074, -0.06832700967788696], [-0.08428200334310532, -0.10468791425228119, -0.12094663083553314, 0.04960617050528526, -0.021371284499764442, 0.024124469608068466, -0.030099917203187943, -0.08459113538265228, 0.06582909822463989, 0.1116836741566658, 0.12561704218387604, 0.15352298319339752, -0.05377787724137306, -0.033654581755399704, -0.07029538601636887, 0.103412926197052, 0.11424948275089264, 0.13037481904029846, -0.069490447640419, -0.06703631579875946, 0.101541668176651, -0.09925961494445801, -0.068837471306324, 0.031143803149461746, -0.10926921665668488, 0.002287280047312379, 0.08590362221002579, 0.09860822558403015, 0.02350192703306675, -0.11236871778964996, 0.10645558685064316, 0.13489168882369995, -0.09109136462211609, -0.005522400140762329, -0.06611350923776627, -0.037730321288108826, 0.04206579923629761, 0.06900226324796677, 0.0722445696592331, -0.07585904002189636, 0.010032374411821365, 0.058152247220277786, 0.005946565419435501, -0.015431719832122326, -0.021641815081238747, 0.14526018500328064, -0.031355127692222595, -0.07434070855379105, 0.12966221570968628, -0.0759255439043045, 0.0755351185798645, -0.05754728615283966, -0.016909703612327576, -0.07406415045261383, 0.13617508113384247, 0.0866580456495285, 0.0576937161386013, 0.0029972046613693237, -0.032110683619976044, -0.033882129937410355, -0.007838321849703789, 0.043509043753147125, 0.04591437056660652, 0.13323500752449036]], "fc2.bias": [0.041706912219524384, -0.015230351127684116, -0.05675514414906502]}