{"fc1.weight": [[0.2953883707523346, 0.32700616121292114, -0.10131828486919403, 0.3708561062812805, -0.024418147280812263, 0.09533172845840454, -0.1420857459306717], [0.19136261940002441, 0.2684951424598694, -0.3114916682243347, 0.32558566331863403, 0.0821649581193924, 0.22764697670936584, -0.010716862045228481], [0.16612929105758667, -0.07260424643754959, 0.26843151450157166, 0.030261080712080002, -0.16556963324546814, 0.10785868763923645, -0.17413397133350372], [-0.05134231597185135, -0.2251921445131302, 0.2237706035375595, -0.2983538806438446, -0.16890272498130798, -0.12274959683418274, -0.22725962102413177], [0.008169129490852356, -0.36929288506507874, 0.33173781633377075, -0.34166237711906433, 0.2671752870082855, 0.07026901096105576, -0.154200479388237], [0.2618386745452881, 0.10125241428613663, 0.31823843717575073, 0.03500620648264885, -0.1520010530948639, 0.13824614882469177, -0.0681595653295517], [0.17852263152599335, 0.42643314599990845, 0.26926812529563904, -0.12624549865722656, 0.2746593952178955, 0.12438826262950897, 0.2677547335624695], [-0.23893877863883972, -0.37415021657943726, -0.14603054523468018, -0.28990739583969116, 0.299404114484787, 0.09477048367261887, 0.1486222892999649], [0.11523983627557755, -0.04018624871969223, 0.261354923248291, -0.2821943163871765, 0.0060585420578718185, -0.2780775725841522, 0.11329890787601471], [-0.16867737472057343, 0.1472507119178772, -0.068583644926548, 0.27766042947769165, -0.2687940001487732, -0.22541725635528564, -0.22543086111545563], [0.35162004828453064, 0.15792858600616455, 0.3598636984825134, -0.3377547860145569, -0.4014405310153961, -0.27386337518692017, -0.22269658744335175], [0.17068712413311005, 0.20206338167190552, 0.32834815979003906, -0.1988721787929535, -0.26025182008743286, 0.24708771705627441, -0.09839031100273132], [0.2241487354040146, -0.07176279276609421, 0.2154550701379776, -0.2928277254104614, -0.18784987926483154, 0.11736905574798584, 0.10855314135551453], [-0.11364384740591049, 0.21425515413284302, 0.24590569734573364, -0.2740897536277771, -0.2017832100391388, 0.3392590284347534, -0.12239260971546173], [-0.13399459421634674, -0.3657163977622986, -0.21644899249076843, 0.09441691637039185, -0.0498887300491333, -0.2743591070175171, 0.008865803480148315], [-0.25818052887916565, -0.32066377997398376, -0.20813091099262238, -0.33079907298088074, -0.24066436290740967, 0.37781664729118347, 0.07138803601264954], [0.08380942046642303, -0.4193228781223297, -0.24928300082683563, -0.15216852724552155, 0.020765338093042374, -0.3778631091117859, -0.21011632680892944], [-0.22627544403076172, 0.0010474324226379395, -0.14064179360866547, -0.02619132399559021, -0.256119966506958, -0.25943297147750854, -0.22050514817237854], [-0.12937626242637634, -0.29832011461257935, 0.3169117867946625, -0.07501235604286194, 0.3251993954181671, 0.11776694655418396, -0.3200591802597046], [0.26945769786834717, -0.09769295156002045, -0.15981526672840118, -0.3195265829563141, -0.39270368218421936, 0.10497237741947174, -0.069551981985569], [0.11344979703426361, -0.33518722653388977, 0.2895466685295105, -0.29218634963035583, -0.09476841986179352, 0.036530010402202606, 0.15261125564575195], [0.27802354097366333, 0.3076665997505188, -0.32740914821624756, 0.07904364168643951, -0.15539832413196564, -0.06759998947381973, -0.29317519068717957], [0.35266366600990295, -0.20679634809494019, 0.21866217255592346, 0.12792792916297913, 0.12954436242580414, -0.16169314086437225, 0.40091079473495483], [0.0949430987238884, 0.09166835248470306, -0.3330168128013611, 0.19320233166217804, 0.005868392530828714, -0.13843198120594025, 0.38642117381095886], [0.06359510868787766, -0.2804916799068451, -0.22988879680633545, -0.03825884312391281, 0.22170551121234894, -0.12638244032859802, -0.2356313318014145], [-0.16151657700538635, -0.2676936388015747, 0.14783237874507904, 0.2969304323196411, -0.37077176570892334, 0.07543455809354782, 0.17679326236248016], [0.07937741279602051, -0.11819946020841599, 0.1954018622636795, 0.17849214375019073, 0.145091712474823, -0.06233876571059227, -0.08280350267887115], [0.03818710520863533, -0.06836393475532532, -0.127145454287529, 0.25852030515670776, 0.35966840386390686, -0.020769027993083, -0.05194001644849777], [-0.01400829665362835, -0.03644226863980293, 0.07844069600105286, 0.09688080847263336, -0.3245387673377991, -0.15974484384059906, 0.30524739623069763], [0.14612260460853577, 0.041724782437086105, -0.20285746455192566, -0.2723518908023834, -0.35207632184028625, -0.09770400822162628, 0.12612685561180115], [0.23410233855247498, 0.19935192167758942, -0.309457391500473, -0.25418898463249207, -0.0986032485961914, 0.35864996910095215, 0.042620524764060974], [-0.0978817343711853, 0.1563696563243866, -0.14395968616008759, -0.24463963508605957, 0.2758714258670807, -0.17186111211776733, -0.07576930522918701]], "fc1.bias": [-0.3644242584705353, 0.22625136375427246, 0.26251381635665894, 0.160833477973938, -0.29533088207244873, -0.3486485481262207, -0.2827170491218567, 0.24940109252929688, 0.17758391797542572, 0.30006104707717896, 0.20247025787830353, 0.10875790566205978, -0.012681671418249607, -0.29848235845565796, -0.32382944226264954, -0.35352855920791626, 0.13597849011421204, -0.1855684518814087, -0.07606631517410278, -0.21060220897197723, -0.0929589718580246, -0.2801022231578827, -0.23193128407001495, 0.12490365654230118, -0.1322428584098816, 0.18951624631881714, -0.10887547582387924, -0.275323748588562, -0.08695375174283981, -0.17344766855239868, -0.11738895624876022, -0.35982051491737366], "fc2.weight": [[0.09890495240688324, -0.12307273596525192, 0.08885110914707184, 0.08021847903728485, 0.1262950450181961, -0.13559693098068237, 0.12713722884655, -0.08357146382331848, 0.06559638679027557, 0.16601358354091644, -0.024931147694587708, -0.0013670921325683594, -0.040699392557144165, -0.1476058065891266, 0.08483563363552094, -0.1754893809556961, 0.10974295437335968, 0.1322687715291977, 0.16717885434627533, -0.04169800877571106, -0.14524714648723602, 0.039744749665260315, 0.0976562649011612, -0.1759473830461502, -0.04012541472911835, -0.10596975684165955, -0.015461549162864685, -0.08701187372207642, -0.07226058095693588, -0.05611933022737503, -0.16799160838127136, 0.14504660665988922], [0.17784662544727325, 0.007048356346786022, 0.0064010415226221085, -0.08048875629901886, -0.1303819715976715, -0.1436515748500824, 0.10398273169994354, -0.0785033106803894, -0.08472578972578049, 0.017259148880839348, -0.0345521904528141, -0.03151658549904823, 0.02948068268597126, -0.05431249737739563, -0.06086641550064087, -0.0846417248249054, -0.13088661432266235, 0.1482285112142563, -0.07074375450611115, 0.06531914323568344, -0.03997607156634331, 0.03947015106678009, 0.19631846249103546, 0.11541414260864258, -0.1347283571958542, 0.08172585070133209, 0.19784606993198395, 0.09513552486896515, 0.14732477068901062, 0.18757613003253937, 0.00216608215123415, 0.036690786480903625], [-0.12286600470542908, -0.03642962872982025, 0.13091795146465302, 0.09062384068965912, -0.11186234652996063, -0.14175458252429962, -0.12080277502536774, -0.17445696890354156, -0.1364077925682068, -0.043716415762901306, 0.11930255591869354, 0.029589280486106873, -0.1344573199748993, -0.14181450009346008, 0.08794201910495758, -0.13149380683898926, -0.021766066551208496, 0.0848008543252945, -0.08181438595056534, -0.019275709986686707, -0.015387430787086487, -0.041822418570518494, -0.08963146805763245, -0.1575855314731598, -0.14289867877960205, -0.09465714544057846, 0.1707376092672348, -0.08538573980331421, -0.11871049553155899, 0.042849645018577576, 0.04872147738933563, 0.09685768187046051], [0.1343715637922287, 0.09844236075878143, -0.17527426779270172, 0.015678077936172485, 0.1070830374956131, -0.016338661313056946, -0.10417082160711288, 0.16852827370166779, -0.06611940264701843, -0.10064683854579926, -0.1593739241361618, 0.007896319031715393, 0.07833559811115265, 0.03913179039955139, 0.03495754301548004, -0.13406522572040558, -0.16508950293064117, 0.0031129270792007446, 0.16119103133678436, 0.10198624432086945, -0.10292544960975647, -0.02294713258743286, -0.1303168684244156, -0.08528121560811996, 0.032013967633247375, 0.09626172482967377, 0.14643637835979462, -0.1622997522354126, 0.11819557845592499, -0.12467920780181885, 0.06619708240032196, 0.1495964378118515], [0.002482369542121887, 0.16083301603794098, -0.15062284469604492, -0.06752148270606995, 0.10310553014278412, -0.03851395845413208, -0.036186233162879944, -0.07367905229330063, 0.12185324728488922, 0.08670954406261444, 0.05664810538291931, -0.09934207797050476, -0.14349840581417084, 0.01912027597427368, 0.052375197410583496, -0.08161989599466324, -0.04946170747280121, 0.11938928067684174, 0.014081984758377075, 0.007975876331329346, -0.04350483417510986, -0.16008715331554413, -0.16621559858322144, -0.08450192213058472, -0.08985937386751175, 0.05507540702819824, -0.0514615923166275, -0.06915894895792007, 0.16854415833950043, 0.06157536804676056, 0.1260244995355606, -0.08557984977960587], [-0.07602434605360031, 0.05430343374609947, -0.12801559269428253, -0.12174507230520248, -0.017463579773902893, -0.0659702867269516, -0.13799069821834564, 0.10543827712535858, 0.1304483711719513, 0.024547947570681572, -0.043151333928108215, -0.17631809413433075, -0.07973769307136536, 0.04500479996204376, 0.08335568010807037, -0.022347673773765564, -0.08040434867143631, 0.09850458800792694, -0.14078490436077118, 0.09431109577417374, -0.08055969327688217, -0.011257564648985863, -0.049024030566215515, 0.012690597213804722, -0.055210914462804794, 0.12605120241641998, -0.004171975888311863, 0.13892383873462677, 0.1632108837366104, -0.09282118082046509, -0.14457528293132782, 0.1418282836675644], [0.14212751388549805, -0.12957483530044556, -0.01371593028306961, -0.1928839385509491, -0.12657073140144348, 0.038514554500579834, 0.06203862279653549, -0.004305958282202482, -0.04650075361132622, 0.13128671050071716, 0.024903899058699608, -0.10122230648994446, -0.006728725042194128, 0.05111570283770561, 0.06190590560436249, -0.1249954104423523, 0.04779031500220299, -0.09031196683645248, -0.14689089357852936, -0.09944961965084076, 0.17644347250461578, 0.14964589476585388, 0.16501860320568085, 0.11141253262758255, 0.11850092560052872, -0.05744343623518944, -0.09716735780239105, 0.10619710385799408, -0.03631114959716797, -0.12283746153116226, -0.0520939938724041, 0.037098228931427], [0.08485043048858643, -0.07382943481206894, -0.10984256863594055, 0.023845955729484558, -0.11254695057868958, -0.12151644378900528, 0.08761069178581238, -0.01316306833177805, 0.1567048579454422, 0.17196528613567352, 0.046910855919122696, 0.054796479642391205, 0.035101499408483505, 0.002768471837043762, -0.012857407331466675, 0.0024296343326568604, 0.059886395931243896, 0.16436181962490082, -0.045813292264938354, -0.08109617233276367, -0.04824589192867279, -0.09188203513622284, 0.02509060688316822, 0.12843067944049835, 0.13177309930324554, 0.08116267621517181, -0.13602407276630402, -0.09145364165306091, -0.04057208448648453, -0.03885317221283913, 0.00880152452737093, -0.16227596998214722], [0.03980269655585289, -0.14937976002693176, -0.126890167593956, -0.14776422083377838, 0.13900414109230042, -0.1820228099822998, 0.11924049258232117, -0.010499241761863232, -0.03677107021212578, 0.11118511855602264, -0.03218970075249672, 0.09660173952579498, 0.11389071494340897, -0.15347930788993835, 0.06802083551883698, 0.033371731638908386, 0.020522532984614372, 0.025807887315750122, 0.0483538955450058, -0.09914560616016388, -0.0353885143995285, 0.15255136787891388, 0.10302625596523285, -0.022494390606880188, -0.1850699931383133, 0.008806766010820866, -0.13834922015666962, 0.1271032691001892, -0.10281172394752502, -0.024736858904361725, -0.05264206975698471, 0.03145809471607208], [0.15796500444412231, 0.002298129489645362, 0.08761227130889893, 0.12981685996055603, 0.14598442614078522, -0.0681910365819931, -0.04539118707180023, 0.09408251196146011, -0.0633583813905716, 0.08118483424186707, -0.05647248774766922, -0.13786174356937408, 0.05192847177386284, 0.035150688141584396, 0.07881559431552887, 0.17562519013881683, 0.1049666777253151, 0.1675809770822525, 0.009461581707000732, -0.16713400185108185, -0.13790401816368103, -0.12111712247133255, -0.17113801836967468, -0.10199443995952606, -0.1713680773973465, -0.1574014127254486, -0.1151844710111618, -0.17005270719528198, -0.09919694811105728, 0.061162952333688736, 0.12906469404697418, -0.05258449167013168], [-0.04944043233990669, 0.06279154121875763, -0.1201929822564125, -0.11695154756307602, 0.10307159274816513, -0.1540258228778839, 0.03096170350909233, 0.12928007543087006, -0.0026198977138847113, 0.016732918098568916, -0.13332195580005646, -0.033623915165662766, -0.00595329562202096, 0.04338705539703369, 0.0686858743429184, 0.15360619127750397, -0.16693885624408722, 0.005298927426338196, -0.08832404762506485, -0.15641522407531738, -0.02763509191572666, -0.1772075891494751, 0.11260151863098145, -0.011065377853810787, -0.11060259491205215, 0.06322280317544937, -0.16580058634281158, -0.061716653406620026, -0.034439414739608765, -0.15021604299545288, -0.12728005647659302, -0.02885325253009796], [0.15379317104816437, 0.18987689912319183, 0.1265319138765335, -0.1373923420906067, -0.09402487426996231, 0.1713453233242035, 0.08043913543224335, -0.032121967524290085, 0.03710584342479706, -0.17336510121822357, -0.04431537166237831, 0.18431802093982697, -0.02660326100885868, 0.005111312959343195, -0.14678318798542023, -0.09889014065265656, 0.009249224327504635, -0.10980650782585144, -0.021922007203102112, 0.08936524391174316, -0.15193653106689453, 0.07117458432912827, -0.0971064418554306, -0.0667208880186081, 0.08822102844715118, 0.1087062731385231, -0.03062482923269272, -0.043611135333776474, -0.12403560429811478, -0.07233185321092606, -0.13432563841342926, -0.04045897722244263], [0.016997888684272766, -0.1829231083393097, 0.13337171077728271, 0.08861447870731354, -0.1712598353624344, -0.10687321424484253, 0.029598945751786232, -0.06161501631140709, -0.038008514791727066, -0.09720849990844727, 0.12233070284128189, -0.125465989112854, 0.12895071506500244, 0.039398323744535446, 0.035535961389541626, 0.13790912926197052, -0.024942860007286072, -0.10064662992954254, -0.028590843081474304, 0.13003942370414734, -0.14114098250865936, 0.025233589112758636, -0.18919818103313446, 0.07850451022386551, 0.07496251165866852, -0.015270714648067951, 0.060967180877923965, 0.0016824702033773065, 0.09882649779319763, -0.14701512455940247, -0.04063721373677254, 0.0784207135438919], [0.16121064126491547, 0.07887862622737885, -0.14571498334407806, 0.11782127618789673, -0.05119657143950462, -0.057133838534355164, -0.17932277917861938, -0.038314711302518845, 0.10958994179964066, 0.05662756413221359, -0.12203105539083481, 0.029184088110923767, -0.07649917900562286, 0.1613960713148117, -0.1534341424703598, -0.05583943426609039, -0.16931337118148804, -0.06961999833583832, 0.05572843551635742, 0.1507510095834732, 0.010948722250759602, 0.158071368932724, 0.02352030761539936, 0.09667880088090897, 0.1465061604976654, 0.12644991278648376, -0.102762870490551, 0.1933305561542511, 0.08928196132183075, -0.10217022150754929, -0.10027773678302765, -0.14827077090740204], [0.05727323889732361, -0.13004176318645477, 0.08664081990718842, 0.042757950723171234, -0.16928072273731232, 0.06175846606492996, 0.00139590201433748, 0.07056557387113571, 0.11445225030183792, -0.18272846937179565, 0.17700520157814026, 0.1651807576417923, 0.08736612647771835, -0.1503797322511673, -0.06314830482006073, -0.05123145878314972, -0.038659315556287766, 0.09968845546245575, 0.06427080929279327, 0.158396378159523, -0.04774988815188408, 0.07381784170866013, 0.07509185373783112, -0.1301470547914505, -0.1710706651210785, -0.0947926938533783, 0.11841653287410736, -0.1878310739994049, -0.11837605386972427, 0.12302975356578827, 0.11435583233833313, 0.14537985622882843], [-0.14187254011631012, -0.1397419422864914, 0.08106189221143723, 0.13192008435726166, 0.13608981668949127, 0.022931668907403946, 0.034272726625204086, 0.13351009786128998, -0.12401286512613297, -0.10586324334144592, 0.11733723431825638, -0.12778283655643463, -0.09517146646976471, 0.12092635780572891, 0.05577695369720459, 0.05711124837398529, -0.08111169934272766, -0.0024396032094955444, 0.1617918163537979, -0.10442115366458893, 0.007375573739409447, 0.07927293330430984, -0.12132788449525833, 0.1574498862028122, -0.08469363301992416, -0.07023996114730835, -0.03835005313158035, -0.1210426315665245, -0.16948431730270386, 0.0939907357096672, 0.04453010484576225, -0.16556918621063232], [-0.11651863157749176, 0.17208939790725708, 0.06500818580389023, 0.07093070447444916, -0.10576515644788742, -0.08026504516601562, -0.03040286712348461, -0.032328903675079346, -0.12405942380428314, 0.01456373929977417, 0.015036718919873238, -0.024511922150850296, 0.02123275026679039, -0.07006555050611496, 0.046006470918655396, 0.06666962802410126, -0.09717871248722076, -0.17528806626796722, 0.09253101050853729, 0.03947792574763298, -0.09513524174690247, 0.16764779388904572, -0.08324191719293594, 0.11664419621229172, 0.08495351672172546, -0.1482110172510147, 0.11083973199129105, -0.1671941578388214, -0.09793688356876373, -0.03210078179836273, -0.1223554015159607, 0.17269490659236908], [-0.04083579406142235, 0.06439796835184097, -0.16109773516654968, 0.11322050541639328, -0.04238754138350487, -0.13929703831672668, 0.019305603578686714, 0.06586077064275742, 0.1508842557668686, -0.06868331134319305, -0.08957836776971817, 0.027802271768450737, 0.044526416808366776, 0.07959585636854172, 0.09702832996845245, -0.04008476436138153, 0.10336267203092575, 0.1303359717130661, -0.046177878975868225, 0.12187407910823822, 0.087064728140831, 0.15128129720687866, -0.10367759317159653, -0.0920070931315422, -0.04835929721593857, -0.0031904960051178932, 0.10337603837251663, -0.09941619634628296, 0.09217070043087006, -0.06460624188184738, 0.10097368061542511, -0.008392870426177979], [-0.15487174689769745, -0.09727064520120621, -0.12794248759746552, 0.08767460286617279, -0.1185372918844223, -0.014728724956512451, 0.03814059495925903, -0.09694340080022812, 0.05099478363990784, -0.1726088970899582, -0.126485213637352, -0.16018149256706238, -0.05347094684839249, -0.06439928710460663, 0.02531324326992035, -0.03268857300281525, 0.08309955894947052, 0.16206805408000946, 0.06342591345310211, -0.0696442723274231, -0.16553115844726562, 0.06402885913848877, -0.08758540451526642, 0.08995746076107025, 0.1181725412607193, 0.06818638741970062, 0.16587145626544952, 0.16790185868740082, 0.03743067383766174, -0.1288059949874878, 0.1579395979642868, -0.08387979120016098], [-0.13604086637496948, 0.09450794756412506, 0.08826063573360443, 0.04943224415183067, 0.021097717806696892, -0.2022058367729187, -0.08206725120544434, 0.15696527063846588, -0.0033289154525846243, 0.010212148539721966, -0.08421792834997177, -0.11407121270895004, 0.05671807751059532, 0.028723876923322678, 0.11500634253025055, -0.0312892347574234, 0.0547347255051136, 0.07296809554100037, 0.028189539909362793, 0.06699565798044205, 0.06883504241704941, 0.1168004497885704, 0.08370496332645416, -0.10316470265388489, -0.16941319406032562, 0.019173987209796906, -0.044471174478530884, -0.07932551950216293, -0.06997890025377274, -0.032909560948610306, 0.07714688777923584, 0.05510857701301575], [-0.06277240067720413, -0.07269498705863953, -0.04377543926239014, -0.06832471489906311, 0.15896163880825043, 0.09362895786762238, 0.1596250683069229, 0.0005645602941513062, 0.03565071523189545, 0.061299920082092285, -0.16732852160930634, 0.01578556001186371, -0.0118245929479599, -0.09911056607961655, -0.13716940581798553, 0.15649588406085968, 0.14373113214969635, 0.08193047344684601, 0.16868911683559418, -0.0717373713850975, -0.03053334355354309, 0.06693094968795776, -0.029208213090896606, -0.03468973934650421, -0.14611679315567017, 0.04749305546283722, -0.10683096200227737, 0.006428703665733337, 0.17235295474529266, -0.054414570331573486, -0.0557185560464859, 0.10665164887905121], [-0.0649925246834755, -0.02404741942882538, 0.1562146097421646, -0.08133534342050552, -0.12646785378456116, -0.09893196821212769, -0.04901055991649628, -0.09269879758358002, -0.10058669745922089, 0.0625680685043335, 0.02120102196931839, -0.06534262001514435, -0.13733983039855957, -0.055659882724285126, -0.07460668683052063, -0.05752648413181305, -0.16835157573223114, 0.03808283805847168, -0.12988200783729553, -0.1376735419034958, -0.1444324254989624, 0.07378371059894562, -0.10642428696155548, -0.08175770938396454, 0.13856475055217743, 0.08503996580839157, 0.1013622134923935, -0.16785062849521637, -0.12676653265953064, -0.0667351484298706, 0.14603479206562042, 0.0180843323469162], [-0.09203238785266876, 0.04083530232310295, -0.101124107837677, -0.045767586678266525, -0.06134512275457382, 0.19306012988090515, 0.10245253145694733, -0.009448408149182796, 0.06278520822525024, -0.05222238227725029, 0.10531267523765564, 0.1122794896364212, 0.08469463884830475, -0.09806827455759048, 0.1508171707391739, -0.02552124857902527, -0.06422480195760727, 0.11071772873401642, 0.14408303797245026, 0.2103736251592636, 0.08475451916456223, -0.02433379739522934, 0.1261148750782013, 0.19245284795761108, -0.17098680138587952, -0.0034352352377027273, -0.09692517668008804, 0.0446876585483551, 0.12361640483140945, -0.0033190827816724777, 0.025160668417811394, 0.07956908643245697], [-0.021733952686190605, -0.1417488157749176, 0.144251748919487, -0.10303804278373718, -0.019420430064201355, 0.0155893350020051, -0.005831483285874128, -0.1784226894378662, 0.07919283211231232, -0.08255928009748459, -0.09528999775648117, 0.02243870683014393, -0.1104109063744545, -0.08169905096292496, -0.059564895927906036, -0.06641104072332382, -0.06718461215496063, -0.04767417907714844, 0.04593998193740845, -0.15837855637073517, -0.12232666462659836, 0.0064439014531672, 0.032512117177248, 0.10545819997787476, -0.10954269021749496, 0.04386178404092789, 0.11233752965927124, 0.11160052567720413, -0.16465361416339874, -0.06745872646570206, -0.16449671983718872, -0.1118663102388382], [0.12211669981479645, -0.00048503506695851684, 0.09305313229560852, -0.11933527886867523, 0.019877195358276367, -0.08255281299352646, 0.13065281510353088, -0.03884820267558098, -0.0257330983877182, -0.12105677276849747, 0.01761474832892418, 0.19252359867095947, 0.10573551058769226, -0.11314144730567932, 0.002377420663833618, -0.019383296370506287, -0.1612132340669632, 0.13860903680324554, 0.002849757671356201, 0.0505296066403389, -0.05481885373592377, -0.06555547565221786, 0.05068260803818703, 0.09113594144582748, 0.023504216223955154, -0.06165910139679909, 0.17927314341068268, -0.002849611220881343, -0.06190263107419014, -0.07032361626625061, 0.19957225024700165, 8.508563041687012e-06], [-0.039184894412755966, -0.09337518364191055, -0.06523889303207397, -0.16472285985946655, -0.145185187458992, 0.08919180929660797, 0.13697077333927155, 0.15216954052448273, -0.14620652794837952, 0.08040751516819, -0.12708179652690887, 0.08778299391269684, 0.11560516804456711, 0.1256469041109085, 0.12728829681873322, 0.11058677732944489, -0.01676100119948387, 0.08122579753398895, -0.06324555724859238, 0.06354263424873352, -0.06705723702907562, -0.01676938496530056, -0.16609051823616028, -0.0691540539264679, -0.1071077212691307, -0.07664116472005844, -0.12516197562217712, -0.17303115129470825, 0.00784225296229124, 0.09952382743358612, 0.14708329737186432, 0.10315878689289093], [-0.09133337438106537, -0.17321008443832397, 0.06947153806686401, 0.10042959451675415, -0.15045621991157532, 0.06813179701566696, 0.16253085434436798, 0.005783377215266228, -0.10153369605541229, 0.1377987414598465, 0.08054003119468689, 0.12867987155914307, -0.11574464291334152, 0.10001128911972046, -0.12075150012969971, 0.17491953074932098, -0.10404594987630844, 0.10651980340480804, 0.03539803624153137, 0.04289787635207176, -0.029964914545416832, 0.0696534663438797, -0.07233207672834396, -0.16883864998817444, -0.10752270370721817, 0.1336689442396164, -0.049394991248846054, 0.0298216100782156, -0.08019676804542542, 0.1252528876066208, 0.10649184882640839, 0.06240458786487579], [-0.09036146849393845, -0.14444951713085175, 0.006655529141426086, -0.10370741784572601, 0.14534468948841095, -0.16987811028957367, 0.07899589836597443, 0.17623116075992584, 0.08853478729724884, 0.06027708947658539, -0.1700851023197174, 0.1700402945280075, -0.03023722767829895, -0.16518163681030273, 0.17450739443302155, -0.07193586230278015, -0.012506529688835144, 0.1618000715970993, -0.12254172563552856, -0.12506774067878723, 0.028746947646141052, -0.023662254214286804, 0.040719062089920044, -0.14826354384422302, 0.005286797881126404, -0.07862315326929092, -0.08690498769283295, -0.1618632674217224, 0.09373025596141815, 0.03405363857746124, -0.14945465326309204, 0.14028148353099823], [0.04916096478700638, 0.02904144860804081, -0.10911218076944351, 0.006446900777518749, 0.1719769984483719, 0.11572078615427017, -0.14651191234588623, 0.1369173675775528, 0.009762823581695557, 0.06778402626514435, 0.134593665599823, 0.14518138766288757, -0.13842684030532837, 0.17096537351608276, -0.12006229162216187, 0.01325225830078125, -0.11741524934768677, -0.038755327463150024, -0.008033215999603271, -0.01821446232497692, -0.023879706859588623, 0.013705268502235413, 0.17053519189357758, 0.09968727827072144, 0.10456693172454834, 0.05153777450323105, 0.1259130835533142, -0.028639573603868484, 0.02880001813173294, 0.045157384127378464, -0.1525108516216278, -0.14240369200706482], [0.021673068404197693, -0.06916392594575882, -0.0032438039779663086, -0.04056297242641449, 0.02751755714416504, 0.11501367390155792, -0.05862656235694885, 0.14157350361347198, 0.13957612216472626, -0.13567578792572021, -0.13651159405708313, -0.14302557706832886, -0.09687720239162445, -0.0688149705529213, -0.013305887579917908, -0.04299071431159973, -0.08931616693735123, -0.0561608225107193, -0.06394799798727036, 0.17342467606067657, -0.06551853567361832, -0.12657228112220764, 0.07348562777042389, -0.010210901498794556, 0.135333850979805, 0.11045585572719574, 0.16240985691547394, -0.12946408987045288, 0.11364327371120453, 0.14835785329341888, -0.08729790151119232, 0.16248957812786102], [0.145903542637825, 0.01641746610403061, 0.09123889356851578, -0.08326837420463562, -0.14038041234016418, 0.057422835379838943, 0.0797610729932785, -0.13227421045303345, 0.0933636799454689, -0.17441962659358978, 0.15720048546791077, 0.17935681343078613, 0.0560494028031826, -0.09157994389533997, 0.08603213727474213, 0.030125528573989868, 0.03755393251776695, 0.05809825658798218, 0.13458989560604095, -0.07340740412473679, -0.03362469747662544, 0.05563398823142052, 0.03491612523794174, 0.1595626324415207, -0.09299471974372864, -0.029944904148578644, 0.04650719091296196, -0.00038052056333981454, 0.15094764530658722, 0.01741931028664112, -0.15044544637203217, -0.01915125548839569], [-0.08960242569446564, 0.0027306266129016876, -0.03356168791651726, -0.19993124902248383, -0.05196543410420418, -0.026677841320633888, -0.06575726717710495, 0.1367677003145218, -0.050183724611997604, 0.09490865468978882, 0.03443267196416855, -0.16337628662586212, 0.029592737555503845, 0.14650113880634308, -0.11562974750995636, -0.11426402628421783, 0.16969062387943268, 0.14204181730747223, -0.09862265735864639, 0.09692443907260895, -0.03401733562350273, -0.1814442276954651, 0.002117045456543565, 0.04263122007250786, -0.05575685203075409, 0.03902524709701538, -0.15827448666095734, 0.1149931252002716, 0.1351819634437561, 0.09112194180488586, 0.017922665923833847, 0.058221206068992615]], "fc2.bias": [-0.12790638208389282, -0.005461216438561678, -0.016876444220542908, -0.09837377816438675, -0.13057079911231995, 0.11104617267847061, 0.11370726674795151, -0.16372793912887573, 0.03822287544608116, 0.0619128979742527, 0.1349898725748062, 0.10686995834112167, 0.13817454874515533, -0.06580489128828049, 0.13471737504005432, 0.12475382536649704, -0.16864199936389923, -0.14520429074764252, 0.035780563950538635, 0.04554092511534691, -0.08782497048377991, 0.010632414370775223, 0.032519109547138214, 0.04843062534928322, -0.07399187237024307, 0.0731784850358963, 0.12162546813488007, -0.12265796959400177, -0.011188565753400326, 0.0004904866218566895, 0.05841064453125, 0.14251309633255005]}